digraph Tree {
node [shape=box, style="filled, rounded", color="black", fontname=helvetica] ;
edge [fontname=helvetica] ;
0 [label="exang <= 0.5\ngini = 0.5\nsamples = 100.0%\nvalue = [0.46, 0.54]\nclass = disease", fillcolor="#e1f0fb"] ;
1 [label="thal <= 2.5\n0.41\n67.8%\n[0.28, 0.72]\ndisease", fillcolor="#87c4ef"] ;
0 -> 1 [labeldistance=2.5, labelangle=45, headlabel="True"] ;
2 [label="trestbps <= 135.5\n0.28\n50.0%\n[0.17, 0.83]\ndisease", fillcolor="#62b1ea"] ;
1 -> 2 ;
3 [label="cp <= 0.5\n0.21\n38.2%\n[0.12, 0.88]\ndisease", fillcolor="#53aae8"] ;
2 -> 3 ;
4 [label="age <= 46.5\n0.43\n7.2%\n[0.31, 0.69]\ndisease", fillcolor="#93caf1"] ;
3 -> 4 ;
5 [label="0.0\n0.7%\n[1.0, 0.0]\nno disease", fillcolor="#e58139"] ;
4 -> 5 ;
6 [label="0.34\n6.6%\n[0.21, 0.79]\ndisease", fillcolor="#6fb8ec"] ;
4 -> 6 ;
7 [label="oldpeak <= 1.7\n0.13\n30.9%\n[0.07, 0.93]\ndisease", fillcolor="#48a5e7"] ;
3 -> 7 ;
8 [label="0.11\n29.6%\n[0.06, 0.94]\ndisease", fillcolor="#46a3e7"] ;
7 -> 8 ;
9 [label="0.5\n1.3%\n[0.5, 0.5]\nno disease", fillcolor="#ffffff"] ;
7 -> 9 ;
10 [label="oldpeak <= 2.95\n0.45\n11.8%\n[0.35, 0.65]\ndisease", fillcolor="#a2d1f3"] ;
2 -> 10 ;
11 [label="chol <= 271.0\n0.41\n11.2%\n[0.29, 0.71]\ndisease", fillcolor="#8bc5f0"] ;
10 -> 11 ;
12 [label="0.0\n4.6%\n[0.0, 1.0]\ndisease", fillcolor="#399de5"] ;
11 -> 12 ;
13 [label="0.5\n6.6%\n[0.5, 0.5]\nno disease", fillcolor="#ffffff"] ;
11 -> 13 ;
14 [label="0.0\n0.7%\n[1.0, 0.0]\nno disease", fillcolor="#e58139"] ;
10 -> 14 ;
15 [label="slope <= 1.5\n0.49\n17.8%\n[0.57, 0.43]\nno disease", fillcolor="#f9e1cf"] ;
1 -> 15 ;
16 [label="chol <= 295.5\n0.29\n9.9%\n[0.82, 0.18]\nno disease", fillcolor="#eb9c64"] ;
15 -> 16 ;
17 [label="age <= 63.5\n0.08\n8.6%\n[0.96, 0.04]\nno disease", fillcolor="#e68642"] ;
16 -> 17 ;
18 [label="0.0\n5.3%\n[1.0, 0.0]\nno disease", fillcolor="#e58139"] ;
17 -> 18 ;
19 [label="0.2\n3.3%\n[0.89, 0.11]\nno disease", fillcolor="#e89152"] ;
17 -> 19 ;
20 [label="0.0\n1.3%\n[0.0, 1.0]\ndisease", fillcolor="#399de5"] ;
16 -> 20 ;
21 [label="thalach <= 184.0\n0.22\n7.9%\n[0.12, 0.88]\ndisease", fillcolor="#55abe9"] ;
15 -> 21 ;
22 [label="oldpeak <= 0.75\n0.12\n7.2%\n[0.07, 0.93]\ndisease", fillcolor="#47a4e7"] ;
21 -> 22 ;
23 [label="0.0\n5.3%\n[0.0, 1.0]\ndisease", fillcolor="#399de5"] ;
22 -> 23 ;
24 [label="0.44\n2.0%\n[0.33, 0.67]\ndisease", fillcolor="#9ccef2"] ;
22 -> 24 ;
25 [label="0.0\n0.7%\n[1.0, 0.0]\nno disease", fillcolor="#e58139"] ;
21 -> 25 ;
26 [label="cp <= 1.5\n0.35\n32.2%\n[0.77, 0.23]\nno disease", fillcolor="#eda774"] ;
0 -> 26 [labeldistance=2.5, labelangle=-45, headlabel="False"] ;
27 [label="slope <= 1.5\n0.24\n27.6%\n[0.86, 0.14]\nno disease", fillcolor="#e9965a"] ;
26 -> 27 ;
28 [label="chol <= 237.5\n0.08\n19.7%\n[0.96, 0.04]\nno disease", fillcolor="#e68641"] ;
27 -> 28 ;
29 [label="sex <= 0.5\n0.17\n7.2%\n[0.91, 0.09]\nno disease", fillcolor="#e88e4d"] ;
28 -> 29 ;
30 [label="0.48\n2.0%\n[0.6, 0.4]\nno disease", fillcolor="#f6d5bd"] ;
29 -> 30 ;
31 [label="0.0\n5.3%\n[1.0, 0.0]\nno disease", fillcolor="#e58139"] ;
29 -> 31 ;
32 [label="0.0\n12.5%\n[1.0, 0.0]\nno disease", fillcolor="#e58139"] ;
28 -> 32 ;
33 [label="chol <= 228.0\n0.45\n7.9%\n[0.65, 0.35]\nno disease", fillcolor="#f3c4a2"] ;
27 -> 33 ;
34 [label="oldpeak <= 0.05\n0.5\n4.6%\n[0.5, 0.5]\nno disease", fillcolor="#ffffff"] ;
33 -> 34 ;
35 [label="0.3\n2.6%\n[0.18, 0.82]\ndisease", fillcolor="#65b3eb"] ;
34 -> 35 ;
36 [label="0.0\n2.0%\n[1.0, 0.0]\nno disease", fillcolor="#e58139"] ;
34 -> 36 ;
37 [label="0.0\n3.3%\n[1.0, 0.0]\nno disease", fillcolor="#e58139"] ;
33 -> 37 ;
38 [label="thal <= 1.5\n0.18\n4.6%\n[0.1, 0.9]\ndisease", fillcolor="#4fa8e8"] ;
26 -> 38 ;
39 [label="0.0\n0.7%\n[1.0, 0.0]\nno disease", fillcolor="#e58139"] ;
38 -> 39 ;
40 [label="0.0\n3.9%\n[0.0, 1.0]\ndisease", fillcolor="#399de5"] ;
38 -> 40 ;
}